{
    "type_name": "LogisticRegression",
    "type_module": "sklearn.linear_model._logistic",
    "types": {
        "classes_": "int64",
        "coef_": "float64",
        "intercept_": "float64",
        "n_iter_": "int32"
    },
    "data": {
        "penalty": "l2",
        "dual": false,
        "tol": 0.0001,
        "C": 1.0,
        "fit_intercept": true,
        "intercept_scaling": 1,
        "class_weight": null,
        "random_state": null,
        "solver": "lbfgs",
        "max_iter": 100,
        "multi_class": "auto",
        "verbose": 0,
        "warm_start": false,
        "n_jobs": 4,
        "l1_ratio": null,
        "n_features_in_": 117,
        "classes_": [
            0,
            1,
            2
        ],
        "coef_": [
            [
                -3.868856744984395,
                2.204813447932959,
                2.6821109849960068,
                0.8247129329468603,
                -0.13374594882311872,
                -0.3546877388862611,
                0.06597399873010229,
                -1.109708350831111,
                -2.3262677109997068,
                0.7923840997370805,
                -0.43138383866122426,
                1.2955284214622758,
                -0.07731999191897836,
                -0.2996675619409624,
                0.016356235301046747,
                -0.5140351851814632,
                0.030373194404742957,
                0.0,
                -0.20128291606361062,
                0.4690989103631248,
                0.44037732589073364,
                1.5490332114960297,
                -1.0431896696779697,
                0.561579129820651,
                -0.4321291349217351,
                -0.0513904892279949,
                -0.18963092071554377,
                -0.010772419759940423,
                -1.7713647782610393,
                -0.3705254390642604,
                0.0,
                0.10101888515211475,
                1.7528487876620027,
                0.3467841377206436,
                -0.6749990375945331,
                0.6369300268093594,
                0.27657255779438145,
                -0.5979176966944426,
                -0.10570405178253355,
                0.22315926524633947,
                -0.19047686424243682,
                0.5859084551929238,
                0.9681119333886234,
                0.0,
                0.9562759269863591,
                0.08019245426384716,
                -1.016750925254292,
                -1.3396048932415565,
                0.458194408194052,
                -0.6104669967243036,
                -0.03347917831448175,
                -0.12626176484939713,
                1.0904705545634894,
                -0.1367762292008266,
                -0.04175260862897098,
                0.35368834503547664,
                0.0,
                0.629467954400236,
                1.4765159793674545,
                0.2300299998183912,
                0.567873810378276,
                1.1105595451969978,
                -0.20245612694365017,
                -0.23504234847076272,
                0.7579880491489884,
                -0.7652064959809898,
                -0.29159368967076077,
                0.27249526532765456,
                -0.25097451870825005,
                0.0,
                2.2412162041272254,
                1.0397053522311384,
                0.20928345337266974,
                2.532383422693058,
                0.0,
                0.13993369300374386,
                -0.1769725734852974,
                -2.005661786830796,
                -0.8560179956036351,
                -0.4549185694637499,
                -0.10439557229776435,
                -0.1262377025778994,
                0.08164924556539287,
                2.023521627777535,
                -0.890167941953597,
                0.0,
                -1.0843056097082011,
                -0.6008519923851482,
                -0.45757242257636715,
                1.445816717728203,
                -0.783877299485647,
                -0.8756954689408503,
                -1.493379125460682,
                -0.09381240170024119,
                -0.06880600635205063,
                -0.011943765492312129,
                0.29462757616444674,
                -0.4259744321584908,
                0.0,
                -0.17829785592948874,
                -1.0031965475894897,
                -0.9637658729134254,
                0.9629440339098176,
                -0.6164983626665212,
                -0.6329702297476081,
                -0.3868941172159964,
                0.6904113306028986,
                -0.041413486597980304,
                0.029142713161631556,
                -0.48956330355678374,
                -0.30176568381407315,
                0.0,
                -0.3027167894892768,
                0.052656274640379946,
                -0.07683636583925266,
                0.7662894080384756,
                2.152001243865415
            ],
            [
                2.095940744800541,
                4.152331500018153,
                -0.07513264011463461,
                -0.890373197659034,
                4.11471345661694,
                1.087378096002029,
                -0.11446061339562794,
                -2.8766143122915926,
                2.853835054157443,
                2.2483676498264025,
                -0.29588478414605435,
                -1.3595437498523348,
                1.6706963484562145,
                1.2892687962677143,
                -0.016097382496607974,
                -1.5428100090679082,
                0.8304469827308452,
                0.0,
                2.939549928863984,
                1.299375064694991,
                0.08658564666373854,
                1.2360993184370135,
                2.6549856974479003,
                -0.6008594529514792,
                -1.1178813143975872,
                0.7752439371961417,
                1.156935809567725,
                -0.014310592137220576,
                0.5348709215573686,
                1.6669806764386539,
                0.0,
                2.5220905585793703,
                0.07128736722266825,
                -1.4974336405261301,
                1.2959288173260524,
                1.870770560419718,
                -1.1836474054097408,
                -0.25102059934859,
                0.7523659697465184,
                0.837165672967211,
                0.09677019183626785,
                0.29602067468301724,
                0.5418192904213819,
                0.0,
                1.8745684547244992,
                0.7888644775663538,
                -0.35441326399469586,
                2.339501714077499,
                0.9688728411225334,
                -0.657010335094704,
                -0.561171954212314,
                0.7649834308404971,
                -0.15753633098624667,
                0.04093397261598925,
                0.009289623538788257,
                -0.4179185268966561,
                0.0,
                1.6606167384761221,
                0.20078952428916536,
                0.6553848996041598,
                1.191572468967666,
                0.695127518613168,
                -0.16685303371211346,
                -0.46166979720274565,
                0.08810963153427413,
                0.07337800477925684,
                0.23595470001795346,
                0.43516150232005363,
                -0.323117027276757,
                0.0,
                -0.770342645915847,
                -0.9538094519846286,
                -0.2524148059620412,
                0.37619661243303626,
                0.0,
                3.4857840383873238,
                -0.5908905788169688,
                3.703623742202044,
                2.709147560603952,
                0.6973957995902944,
                0.283777767549224,
                0.9078239931190689,
                -0.037512237857434697,
                -3.2267292655847157,
                2.897080435447532,
                0.0,
                1.1732324237438727,
                2.8254852077450203,
                0.18143943652395297,
                -1.281424189976883,
                1.0888831022419219,
                2.0679658546495863,
                0.4809135995802795,
                -0.6159803555544131,
                0.31675859964973035,
                0.0155519863374313,
                -1.256750138012482,
                2.3724603981135837,
                0.0,
                0.9492984774825575,
                2.3483444373168787,
                -1.7489933238279756,
                -1.3074150205113941,
                1.2593839719615556,
                1.4684491465308627,
                -0.15831702691231556,
                -0.4382907183682797,
                -0.012747455574079077,
                -0.0254891535783274,
                -0.3093657838104905,
                1.9214127114054995,
                0.0,
                0.5707419562704003,
                1.3918179853403962,
                -0.14267434452941716,
                2.1397601962787656,
                1.5620687303340923
            ],
            [
                1.7729160001839208,
                -6.3571449479510544,
                -2.6069783448813753,
                0.0656602647122127,
                -3.9809675077937863,
                -0.7326903571157571,
                0.04848661466555761,
                3.9863226631226176,
                -0.527567343157816,
                -3.040751749563481,
                0.727268622807299,
                0.06401532839012951,
                -1.5933763565371954,
                -0.9896012343267441,
                -0.00025885280419248903,
                2.0568451942493278,
                -0.8608201771356018,
                0.0,
                -2.738267012800369,
                -1.7684739750581553,
                -0.5269629725545005,
                -2.785132529932983,
                -1.6117960277699228,
                0.03928032313084733,
                1.5500104493193498,
                -0.7238534479681512,
                -0.9673048888521696,
                0.025083011898435013,
                1.2364938567035952,
                -1.2964552373744136,
                0.0,
                -2.6231094437314724,
                -1.8241361548846955,
                1.150649502805501,
                -0.6209297797315263,
                -2.50770058722909,
                0.9070748476153552,
                0.8489382960430447,
                -0.6466619179639906,
                -1.0603249382135458,
                0.09370667240618635,
                -0.8819291298758568,
                -1.50993122381,
                0.0,
                -2.8308443817109716,
                -0.8690569318302092,
                1.371164189248986,
                -0.999896820835972,
                -1.4270672493165897,
                1.2674773318190213,
                0.5946511325267638,
                -0.6387216659911066,
                -0.9329342235772319,
                0.09584225658465537,
                0.03246298509022877,
                0.06423018186118587,
                0.0,
                -2.2900846928763503,
                -1.6773055036566193,
                -0.8854148994225408,
                -1.7594462793458991,
                -1.8056870638102085,
                0.3693091606557561,
                0.6967121456735189,
                -0.8460976806832763,
                0.6918284912017293,
                0.05563898965330043,
                -0.7076567676475539,
                0.574091545984996,
                0.0,
                -1.4708735582113788,
                -0.08589590024652918,
                0.04313135258937203,
                -2.908580035126069,
                0.0,
                -3.6257177313910223,
                0.7678631523022452,
                -1.6979619553713226,
                -1.8531295650003214,
                -0.24247723012651967,
                -0.1793821952514597,
                -0.7815862905411864,
                -0.04413700770748031,
                1.2032076378071077,
                -2.0069124934939175,
                0.0,
                -0.08892681403565464,
                -2.224633215359862,
                0.276132986052405,
                -0.16439252775135862,
                -0.30500580275625644,
                -1.1922703857087313,
                1.0124655258804038,
                0.7097927572546429,
                -0.247952593297676,
                -0.0036082208441756414,
                0.9621225618479329,
                -1.9464859659551028,
                0.0,
                -0.771000621553044,
                -1.3451478897273983,
                2.712759196741422,
                0.34447098660154696,
                -0.6428856092950156,
                -0.835478916783243,
                0.545211144128329,
                -0.2521206122346198,
                0.05416094217206042,
                -0.003653559583408297,
                0.7989290873673124,
                -1.6196470275914003,
                0.0,
                -0.268025166781141,
                -1.4444742599807563,
                0.2195107103686606,
                -2.9060496043171624,
                -3.714069974199389
            ]
        ],
        "intercept_": [
            -0.5878532039223162,
            0.6898834548021384,
            -0.10203025087984172
        ],
        "n_iter_": [
            100
        ]
    }
}